{"layers": [{"batch_input_shape": [null, 60], "class_name": "InputLayer"}, {"class_name": "Dense", "units": 5, "activation": "softmax", "weights": [[[0.8511918783187866, -0.4359135627746582, -0.8031265139579773, 0.3026890158653259, -0.03147631883621216], [0.30433619022369385, -0.8245952725410461, 1.3479509353637695, -0.027928799390792847, -0.28171807527542114], [0.14399617910385132, 0.026708582416176796, -0.17177072167396545, -0.07698825746774673, -0.09666231274604797], [0.2625521123409271, -0.6789169311523438, -0.4000827968120575, -0.17508582770824432, 0.7554448246955872], [-0.29014158248901367, -0.685240626335144, -0.38147372007369995, 0.8464635610580444, 0.5432285666465759], [-1.0818932056427002, -0.2917602062225342, -0.6927410364151001, 0.4758850634098053, 0.15607701241970062], [0.8329485058784485, -0.22175174951553345, -0.47979217767715454, -0.2501955032348633, 0.009033300913870335], [0.3542605936527252, 0.522728443145752, 0.16049090027809143, -0.16289077699184418, 0.1686425358057022], [-0.08955801278352737, 0.10897114872932434, 0.5743477940559387, 0.002685538027435541, -0.35109981894493103], [-0.004303370136767626, -0.2804275155067444, 0.7038072347640991, 0.15349631011486053, 0.41394639015197754], [-0.733340859413147, 0.12429576367139816, 0.785319447517395, -0.7011064291000366, 0.4882318675518036], [-0.40591540932655334, -0.17500263452529907, -0.12380634993314743, 0.10674280673265457, 0.32890427112579346], [0.8630561828613281, -0.11184696108102798, -0.06914934515953064, -0.7364489436149597, -0.09430061280727386], [0.306428462266922, 0.40519821643829346, 0.34694406390190125, -0.6093361377716064, -0.2636488378047943], [0.13472668826580048, -0.578041136264801, 0.5161052942276001, -0.252223402261734, -0.11657557636499405], [-0.018202723935246468, -0.4642232656478882, 0.27540022134780884, 0.16191212832927704, 0.6868088245391846], [-0.4608696401119232, 0.07812348008155823, 0.06871238350868225, -0.05560501664876938, 0.5152711868286133], [-0.139857679605484, -0.5249794721603394, 0.36120104789733887, 0.3309098482131958, 0.3068368434906006], [0.8261268734931946, -0.1893908828496933, -0.5946357846260071, -0.5899490714073181, 0.4892118275165558], [-0.20706282556056976, 0.2996179163455963, 0.2607499659061432, -0.6354637742042542, -0.5045531988143921], [0.2529377341270447, -0.2891490161418915, 0.5034865736961365, -0.013940242119133472, 0.15781624615192413], [0.3797718286514282, -0.7140627503395081, 0.36539873480796814, 0.2601696848869324, 0.5413252115249634], [-0.5115247368812561, 0.09763692319393158, 0.3461607098579407, 0.09153829514980316, -0.07096940279006958], [-0.5603588223457336, -0.26593825221061707, -0.19665859639644623, 0.05316613242030144, -0.06431572139263153], [0.6149837970733643, -0.04109015688300133, -0.6678492426872253, -0.3583713471889496, 0.10004957765340805], [-0.03869406506419182, 0.07060874998569489, 0.3619534969329834, -0.026301061734557152, -0.5662146210670471], [0.2939141094684601, -0.22817762196063995, 0.17624591290950775, 0.11925022304058075, 0.03316514194011688], [0.11486101150512695, -0.2948102355003357, 0.2621399164199829, -0.18721377849578857, 0.7377026081085205], [-0.31522056460380554, -0.08266450464725494, 0.1736842393875122, 0.3404099941253662, -0.025729531422257423], [-0.48561322689056396, -0.1879993975162506, 0.21243491768836975, 0.6679129600524902, 0.1168627142906189], [0.6056146621704102, -0.06596366316080093, -0.3044259548187256, -0.7838001251220703, -0.0031865532509982586], [-0.04798108711838722, 0.15253062546253204, 0.4429055452346802, -0.20585301518440247, -0.23066186904907227], [-0.04571967571973801, -0.75050288438797, 0.2576724886894226, -0.031983330845832825, 0.30608275532722473], [0.08880972862243652, -0.389242947101593, 0.1552666425704956, 0.011676676571369171, 0.37835684418678284], [-0.3859543800354004, -0.18404552340507507, 0.17668454349040985, 0.022157348692417145, 0.1525970846414566], [-0.7693691253662109, -0.23461546003818512, -0.14744532108306885, 0.4671545922756195, -0.33099690079689026], [1.0406663417816162, -0.20186084508895874, -0.2260749340057373, -0.22080500423908234, 0.10216297209262848], [0.061772655695676804, 0.08547397702932358, 0.7023772597312927, -0.36353933811187744, -0.3125072419643402], [0.18960066139698029, -0.5252825021743774, 0.25038838386535645, -0.3251992166042328, 0.2753712236881256], [0.2258346676826477, -0.34659117460250854, -0.11302343010902405, -0.2823040783405304, 0.3614194989204407], [-0.3353036940097809, -0.42311376333236694, -0.08352716267108917, 0.04731489345431328, -0.22612042725086212], [-0.6575844883918762, -0.5437997579574585, -0.2972274124622345, 0.5738546848297119, -0.18872304260730743], [0.7317429184913635, -0.14276744425296783, -0.3157014548778534, -0.27352675795555115, -0.15254807472229004], [0.3685843348503113, -0.2695121169090271, 0.795789361000061, -0.0861651673913002, -0.26393407583236694], [0.01344791054725647, -0.5574631094932556, -0.038367751985788345, -0.09680315852165222, 0.39694035053253174], [0.06845387071371078, -0.6624613404273987, -0.24529379606246948, -0.17825035750865936, 0.3985968828201294], [0.22505785524845123, -0.3052571713924408, -0.06762111186981201, 0.4625295102596283, 0.1589774787425995], [-0.799180805683136, -0.21422144770622253, -0.0638345256447792, 0.7340110540390015, -0.054067883640527725], [1.1073147058486938, 0.2500383257865906, -0.6259456276893616, -0.3684684634208679, -0.11502457410097122], [-0.006530510727316141, -0.07846646755933762, 0.549036979675293, -0.36370328068733215, -0.5088399648666382], [-0.16580380499362946, -0.3622104525566101, -0.06440334022045135, -0.32342562079429626, 0.1683487594127655], [0.033502548933029175, -0.8455184698104858, -0.2947688698768616, -0.16120633482933044, 0.9461522102355957], [-0.30985569953918457, -0.02938591130077839, -0.1459173709154129, 0.42000553011894226, 0.03638250753283501], [-0.8406935930252075, -0.16778628528118134, -0.5787911415100098, 0.6929293274879456, 0.004076442681252956], [0.6127002239227295, -0.0446358360350132, -0.7696224451065063, -0.45307791233062744, -0.4426697790622711], [0.0465666800737381, -0.07198825478553772, 1.0936840772628784, -0.30404460430145264, -0.13839657604694366], [-0.23242615163326263, -0.3615935444831848, 0.23343674838542938, -0.41818973422050476, 0.16316764056682587], [-0.3277623653411865, -0.9014641642570496, -0.5822367668151855, -0.10164915025234222, 0.6608368754386902], [0.015334752388298512, -0.5905695557594299, -0.3156965374946594, 0.48217087984085083, -0.007451180834323168], [-0.40496721863746643, -0.2392033338546753, -0.5147422552108765, 0.6428752541542053, 0.04769125208258629]], [-0.03055626153945923, 0.16457010805606842, 0.35106581449508667, -0.08354634046554565, -0.47914502024650574]]}]}