{"layers": [{"batch_input_shape": [null, 400], "class_name": "InputLayer"}, {"class_name": "Reshape", "target_shape": [400, 1]}, {"class_name": "Conv1D", "strides": 1, "kernel_size": 3, "padding": "valid", "activation": "relu", "weights": [[[-0.39053428173065186, -0.8787205219268799, -0.43160930275917053, -0.8339440226554871], [-0.05801212042570114, 0.9788033366203308, 0.5612461566925049, -0.10542155057191849], [0.5928521156311035, 0.8330550193786621, -0.2548791170120239, -0.6249798536300659]], [0.17460022866725922, 0.31221163272857666, -0.052216049283742905, 0.15439090132713318]]}, {"class_name": "MaxPooling1D", "pool_size": 2, "strides": 2}, {"class_name": "Conv1D", "strides": 1, "kernel_size": 3, "padding": "valid", "activation": "relu", "weights": [[[0.10002122819423676, -0.25326594710350037, 0.026420125737786293, 0.2387116253376007], [0.48095840215682983, -0.31171369552612305, -0.0623624287545681, 0.4750293493270874], [-0.4234825372695923, -0.17781107127666473, 0.032634664326906204, -0.660950243473053], [-0.22973982989788055, 0.15560567378997803, -0.33070242404937744, 0.26543372869491577], [0.5793963074684143, 0.6700665950775146, 0.1265193223953247, 0.5820441842079163], [0.15886881947517395, -0.11040247231721878, -0.0892241969704628, -0.3924883306026459], [0.03580620512366295, -1.0413702726364136, -0.6080291271209717, 0.3344789147377014], [-0.5853986740112305, 0.9364984035491943, 0.43387725949287415, 0.5894625186920166], [0.5004348754882812, -0.26437661051750183, 0.6437123417854309, 0.44758114218711853], [-0.561524510383606, 0.174004465341568, 0.8994302153587341, -0.38130322098731995], [-0.36990872025489807, 0.8438031077384949, 0.43652960658073425, -0.19240806996822357], [-0.4064585864543915, 0.6695460081100464, -0.252279669046402, -0.25919511914253235]], [0.12360113859176636, 0.2707158029079437, 0.05811263993382454, 0.1179857850074768]]}, {"class_name": "MaxPooling1D", "pool_size": 2, "strides": 2}, {"class_name": "Conv1D", "strides": 1, "kernel_size": 3, "padding": "valid", "activation": "relu", "weights": [[[0.6875925064086914, 0.48617058992385864, -0.6096994876861572, -0.279376745223999, 0.9563978910446167, -0.0766160860657692, -0.6421315670013428, -0.16935431957244873], [-0.2849521040916443, 0.43132826685905457, -0.14210796356201172, 0.6469829678535461, -0.27279266715049744, 0.12105411291122437, 0.456449031829834, 0.03703219071030617], [0.3826998472213745, -1.0742433071136475, 0.07033301889896393, 0.09282967448234558, -0.616919994354248, 0.3515951633453369, -0.09589671343564987, -0.23931297659873962], [0.6136150360107422, 0.0592082142829895, 0.21572180092334747, 0.3208797872066498, -0.2373417168855667, -0.3647041320800781, 0.25323060154914856, -0.2091945856809616], [0.2690276801586151, -0.07382053136825562, -0.35876938700675964, 0.6271045207977295, -0.1419823169708252, 0.1465987265110016, -0.06459152698516846, -0.10561496019363403], [-0.14438782632350922, 0.47657686471939087, 0.5140868425369263, 0.04096158966422081, 0.4855964779853821, 0.47120365500450134, -0.10556317120790482, -0.1853335052728653], [-0.21323232352733612, -1.0330077409744263, 0.3667246401309967, -0.4242405295372009, -0.32458919286727905, 0.5120809078216553, 0.05318314954638481, -0.2255469262599945], [0.3222125172615051, 0.2875860333442688, -0.13395604491233826, 0.20874623954296112, -0.20379391312599182, -0.12231012433767319, 0.09017720818519592, 0.31882038712501526], [0.6141675710678101, -1.154552936553955, -0.48943251371383667, -0.666103184223175, -0.05054797977209091, 0.24626095592975616, -0.4074151813983917, -0.15188519656658173], [-0.11383724212646484, -0.13950411975383759, 0.0003884787147399038, 0.564536452293396, 0.34959813952445984, 0.3856152296066284, 0.1122281476855278, -0.37813159823417664], [-0.3756581246852875, -0.014157460071146488, 0.08232752978801727, -0.5947510600090027, 0.08772046864032745, 0.6414083242416382, 0.3845570683479309, -0.17437005043029785], [0.16086307168006897, 0.4418230354785919, -0.27380385994911194, 0.5134578943252563, -0.3020677864551544, -0.24315588176250458, -0.3021814525127411, -0.17221054434776306]], [0.11535924673080444, 0.13982674479484558, 0.21796536445617676, 0.12098540365695953, 0.10407420992851257, 0.025312859565019608, 0.17134839296340942, -7.798333535902202e-05]]}, {"class_name": "MaxPooling1D", "pool_size": 2, "strides": 2}, {"class_name": "Flatten"}, {"class_name": "Dense", "units": 3, "activation": "softmax", "weights": [[[-0.058655381202697754, -0.20421168208122253, 0.23085907101631165], [-0.46782737970352173, -0.0009137069573625922, 0.23356379568576813], [0.2415740191936493, 0.1869642734527588, -0.5747929215431213], [0.17669136822223663, -0.01858413778245449, -0.01753511093556881], [-0.8645796775817871, 0.1492784172296524, 0.2268884927034378], [-0.01497038546949625, -0.030643785372376442, -0.07885449379682541], [0.2142399251461029, 0.16318464279174805, -0.4923311471939087], [0.06391210854053497, 0.11486503481864929, 0.02679605782032013], [-0.1451249122619629, -0.05271618813276291, 0.28579363226890564], [-0.18880875408649445, -0.24920496344566345, 0.37114161252975464], [0.28817975521087646, 0.10374370217323303, -0.4768678545951843], [-0.06387457251548767, 0.08909712731838226, 0.003715548664331436], [-0.1291351467370987, -0.21074089407920837, 0.06929779797792435], [0.3096970021724701, -0.10528065264225006, -0.2758372724056244], [0.12741608917713165, 0.24122312664985657, -0.29442447423934937], [0.06687496602535248, 0.1037079244852066, 0.05123153328895569], [-0.2501976490020752, 0.08345704525709152, 0.19480207562446594], [-0.22914491593837738, 0.0023036254569888115, 0.11771727353334427], [0.051779597997665405, 0.18738263845443726, -0.5300161242485046], [0.07468687742948532, 0.14036816358566284, -0.04952039569616318], [-0.18086814880371094, -0.19009949266910553, 0.2923835813999176], [0.17258673906326294, 0.035191114991903305, -0.14062538743019104], [0.16343678534030914, 0.018019741401076317, -0.33860936760902405], [-0.0813961923122406, 0.0452888160943985, 0.09721940755844116], [-0.18377269804477692, -0.24785903096199036, 0.497026264667511], [-0.06985694169998169, -0.04940856993198395, 0.10537615418434143], [0.3367929458618164, 0.15334464609622955, -0.5407665371894836], [-0.24049077928066254, 0.03733076900243759, 0.2180929332971573], [-0.23019668459892273, -0.1308588832616806, 0.4772895872592926], [0.20444662868976593, 0.18070442974567413, -0.1776890903711319], [0.08711742609739304, 0.2572113871574402, -0.3995145559310913], [0.10989552736282349, -0.0037286952137947083, 0.05891510844230652], [-0.06407784670591354, -0.16678212583065033, 0.27740922570228577], [0.1298481971025467, 0.15678098797798157, -0.0014734496362507343], [0.008049425669014454, 0.2175970822572708, -0.3864935338497162], [-0.27055466175079346, 0.11627757549285889, 0.07989227026700974], [-0.44666990637779236, 0.03375153988599777, 0.3026503026485443], [0.03812658414244652, 0.19377784430980682, -0.047706086188554764], [0.0893501490354538, -0.08263574540615082, -0.009053356945514679], [-0.07369079440832138, 0.058928050100803375, -0.0410148911178112], [-0.08163810521364212, -0.31663233041763306, 0.3554871678352356], [-0.0017642517341300845, 0.043399956077337265, -0.16142025589942932], [-0.09778455644845963, 0.2893197536468506, -0.2563042938709259], [-0.020092962309718132, 0.2840469777584076, -0.0002042455307673663], [-0.2505084276199341, -0.3916412889957428, 0.45173096656799316], [0.10700908303260803, -0.012992281466722488, -0.056956127285957336], [-0.2286166101694107, 0.0920456200838089, 0.16233474016189575], [-0.09337764233350754, -0.046054430305957794, -0.09323900938034058], [-0.06757985055446625, -0.05528086796402931, 0.10175398737192154], [0.3189552426338196, 0.07572353631258011, -0.20218996703624725], [0.33345016837120056, 0.09412427991628647, -0.31815338134765625], [0.021138716489076614, 0.2647879421710968, -0.25980791449546814], [0.2769119441509247, -0.23292507231235504, -0.17976269125938416], [-0.03502465784549713, 0.0003645966644398868, 0.17359952628612518], [0.22379295527935028, -0.13897261023521423, -0.008976897224783897], [0.027124866843223572, 0.07488815486431122, 0.10467152297496796], [-0.5776441693305969, -0.3985815644264221, 0.6610062718391418], [0.14498752355575562, 0.03366221860051155, -0.029201706871390343], [0.11989869177341461, 0.32585129141807556, -0.43510958552360535], [-0.08269348740577698, -0.008251532912254333, 0.21477602422237396], [0.05773407593369484, -0.21319323778152466, 0.07871164381504059], [0.024780696257948875, -0.04814503341913223, -0.19228045642375946], [-0.10049791634082794, 0.20512111485004425, -0.2427135705947876], [0.0306425541639328, -0.06452225148677826, -0.011108987033367157], [0.08573005348443985, -0.19682557880878448, 0.3490743339061737], [-0.03315390273928642, -0.08440147340297699, 0.05155352130532265], [-0.15948955714702606, 0.1587076485157013, -0.007196267135441303], [-0.2228422611951828, 0.30781763792037964, 0.08781019598245621], [-0.24021023511886597, -0.07119143754243851, 0.27617791295051575], [0.02398885414004326, 0.14877428114414215, -0.1554010808467865], [-0.18844307959079742, 0.2518256604671478, -0.1638575792312622], [-0.05009332299232483, -0.10359953343868256, 0.0730580985546112], [-0.1862584948539734, -0.05682193115353584, 0.0382537804543972], [0.027579033747315407, 0.05445914342999458, 0.08989498019218445], [0.018621325492858887, 0.20181670784950256, -0.22436541318893433], [-0.17062842845916748, 0.23539981245994568, -0.04995480552315712], [-0.05852419137954712, -0.009083384647965431, 0.04116920381784439], [0.10512925684452057, -0.03553490340709686, 0.04378070682287216], [0.18800713121891022, -0.23287181556224823, -0.057342927902936935], [-0.0014060320099815726, -0.06533324718475342, -0.004838630091398954], [-0.20958295464515686, -0.17309604585170746, 0.33481040596961975], [0.1313313990831375, -0.07297958433628082, -0.0895863026380539], [0.22340840101242065, 0.05724269896745682, -0.29435187578201294], [-0.13722354173660278, 0.04328717291355133, 0.0822342038154602], [-0.1914599984884262, -0.3110632300376892, 0.35274872183799744], [0.190273717045784, -0.18120399117469788, -0.10314997285604477], [-0.13204169273376465, 0.3486202359199524, -0.17055881023406982], [0.03649945557117462, -0.09162144362926483, 0.0474725067615509], [0.09462380409240723, -0.4142115116119385, 0.17956103384494781], [-0.0008995957323350012, 0.06394285708665848, 0.17706789076328278], [-0.02151048183441162, 0.19942471385002136, -0.3107106387615204], [-0.09845560044050217, 0.047977130860090256, 0.15028084814548492], [-0.12321963906288147, -0.0934467613697052, 0.35006624460220337], [0.04155578464269638, -0.15454982221126556, -0.00659087672829628], [-0.29953446984291077, -0.11196444183588028, 0.31096383929252625], [0.0975152999162674, 0.11037483811378479, -0.019620247185230255], [0.03536616265773773, -0.41781651973724365, 0.3511785864830017], [0.07318899780511856, -0.07007021456956863, -0.11341511458158493], [0.17160490155220032, 0.09065738320350647, -0.1370125114917755], [-0.09902191162109375, 0.21666501462459564, -0.06263404339551926], [0.3516418933868408, -0.14812037348747253, -0.04874163866043091], [-0.023026812821626663, -0.10272663086652756, 0.004849120043218136], [-0.3514254093170166, 0.21716663241386414, -0.01932893879711628], [-0.04711849242448807, -0.09915530681610107, -0.011584028601646423], [-0.2862100601196289, 0.07187864929437637, 0.3080114722251892], [0.07667683809995651, -0.13657651841640472, 0.002384189050644636], [-0.08446173369884491, 0.26225823163986206, -0.1453821063041687], [-0.12141618877649307, 0.18540947139263153, -0.008771884255111217], [0.09546195715665817, -0.3922467827796936, 0.47333037853240967], [0.08921357989311218, 0.00648466357961297, 0.11586791276931763], [-0.30299848318099976, 0.19483362138271332, -0.11345241963863373], [-0.0672353059053421, 0.06275880336761475, 0.02883736789226532], [0.18882663547992706, -0.3795287311077118, -0.002111341105774045], [0.006639414466917515, -0.13125114142894745, 0.02448388561606407], [0.06749088317155838, 0.14172956347465515, -0.11909152567386627], [-0.10761459171772003, -0.05689387023448944, 0.13257117569446564], [0.06431906670331955, -0.12325366586446762, 0.11072851717472076], [0.0444474034011364, 0.04075146093964577, -0.13634483516216278], [-0.4108242094516754, 0.17251896858215332, 0.24016854166984558], [0.1235399842262268, 0.0232115238904953, 0.005176454782485962], [0.042921725660562515, -0.2761891782283783, 0.05334286391735077], [0.0289639700204134, -0.31433480978012085, 0.016765153035521507], [-0.37612777948379517, 0.4279654026031494, -0.02489059418439865], [-0.10267520695924759, -0.0189654603600502, 0.09905347228050232], [-0.11035604029893875, -0.6249822378158569, 0.34616711735725403], [0.007469751872122288, 0.01973426714539528, 0.12497512251138687], [0.0328483022749424, 0.10058250278234482, -0.12878158688545227], [0.06658481061458588, -0.08473730087280273, -0.05030623823404312], [0.05153781175613403, -0.29725128412246704, 0.16915081441402435], [0.4150019884109497, -0.19732359051704407, -0.07136959582567215], [0.09255018085241318, -0.055650804191827774, -0.1184532642364502], [-0.00020936780492775142, -0.10958951711654663, -0.06825434416532516], [0.29122889041900635, -0.013588285073637962, -0.3201780617237091], [0.09391190856695175, 0.005804162006825209, 0.005855677183717489], [-0.5440676212310791, 0.2887308895587921, -0.05310110002756119], [0.09643726050853729, 0.10569033026695251, -0.04945740848779678], [-0.2742987275123596, -0.18124818801879883, 0.5736371874809265], [0.3125024735927582, -0.457471638917923, -0.12368426471948624], [0.022059133276343346, 0.20123191177845, -0.05155300348997116], [-0.11870500445365906, -0.15311187505722046, 0.4484809339046478], [-0.12480288743972778, -0.5073821544647217, 0.3159794807434082], [0.0025432792026549578, -0.031102359294891357, -0.1115485280752182], [0.0558728352189064, 0.25292956829071045, -0.20912104845046997], [0.10782603919506073, 0.06290459632873535, 0.09858876466751099], [-0.23818087577819824, 0.2244442105293274, -0.027302611619234085], [0.3389229476451874, -0.8536192774772644, 0.09447000175714493], [0.011385461315512657, -0.2589401602745056, 0.37874242663383484], [-0.02607673965394497, -0.28648456931114197, 0.12779948115348816], [0.22618615627288818, -0.21543216705322266, -0.032006435096263885], [-0.10633062571287155, 0.1260121464729309, 0.07124534994363785], [-0.2932250499725342, -0.44860416650772095, 0.5884175300598145], [0.05784185230731964, 0.08666497468948364, 0.04038210213184357], [-0.15536756813526154, 0.07166141271591187, 0.23942339420318604], [0.008075932040810585, -0.2829531729221344, 0.16914434731006622], [-0.12745444476604462, 0.17751240730285645, 0.01646273396909237], [0.1197580099105835, -0.26354318857192993, 0.10206552594900131], [-0.27763649821281433, -0.060387514531612396, -0.04273382946848869], [-0.03852177783846855, -0.08145272731781006, 0.0237435195595026], [-0.4145321249961853, 0.2001463621854782, 0.12789149582386017], [0.08542487025260925, 0.08854380249977112, 0.07099829614162445], [-0.036883872002363205, -0.076490119099617, 0.008424390107393265], [0.09605339169502258, -0.44177865982055664, 0.16428609192371368], [-0.21756111085414886, 0.0164409801363945, 0.13427355885505676], [-0.0922282487154007, -0.01911390759050846, 0.22065801918506622], [-0.10009277611970901, -0.23841771483421326, 0.20150794088840485], [0.005238210316747427, -0.11618553102016449, -0.053271785378456116], [-0.2517307996749878, -0.1289767175912857, 0.08201351016759872], [0.0026571303606033325, 0.02168150246143341, -0.03696190565824509], [0.46553099155426025, 0.17007949948310852, -0.45141080021858215], [0.15697257220745087, -0.3162870407104492, 0.16901424527168274], [-0.3515157401561737, 0.1729433685541153, 0.10999790579080582], [0.10855211317539215, -0.11727364361286163, 0.02152428589761257], [-0.25707775354385376, 0.04383470490574837, 0.2698119580745697], [-0.1531498283147812, -0.055366721004247665, 0.08627282083034515], [-0.12254557013511658, 0.10393929481506348, 0.22298935055732727], [0.06997025012969971, -0.013773448765277863, 1.4781951904296875e-05], [0.08473949879407883, 0.11833740770816803, -0.26144903898239136], [0.1429126113653183, -0.2620002031326294, -0.12180718034505844], [-0.10456674546003342, 0.19514432549476624, 0.015194809064269066], [-0.09916068613529205, 0.09144295006990433, -0.1775740385055542], [0.010675114579498768, -0.04079653322696686, -0.06433174759149551], [-0.01173554640263319, 0.07421276718378067, 0.1310116946697235], [-0.10718799382448196, 0.020725145936012268, 0.05900579318404198], [-0.041514284908771515, 0.10687907040119171, -0.028505057096481323], [0.03658442571759224, -0.08266478031873703, -0.002638226840645075], [0.2347184717655182, -0.031554192304611206, -0.1930331587791443], [-0.20090870559215546, -0.012272928841412067, 0.18369212746620178], [0.07769500464200974, 0.12055942416191101, -0.06634622067213058], [0.35874179005622864, -0.4580174684524536, 0.0074631161987781525], [-0.034079451113939285, 0.014201494865119457, 0.14584088325500488], [-0.23445872962474823, 0.2755161225795746, 0.05970194190740585], [0.07171408832073212, 0.10022324323654175, 0.07106289267539978], [0.4469360113143921, -0.04324410483241081, -0.23179544508457184], [0.17579366266727448, -0.1362857222557068, 0.04546628147363663], [-0.27352359890937805, 0.07771484553813934, 0.022862346842885017], [0.09560354799032211, -0.06919021904468536, -0.021672481670975685], [0.05142752453684807, -0.03414576128125191, -0.17220452427864075], [-0.04572790488600731, -0.09950077533721924, 0.07585721462965012], [-0.1714969277381897, 0.059283118695020676, -0.08746441453695297], [-0.02191508561372757, 0.027231678366661072, 0.005746632814407349], [0.12907373905181885, -0.09680115431547165, -0.05609237030148506], [0.21262207627296448, 0.07112544029951096, -0.18611207604408264], [-0.2923111617565155, 0.21476174890995026, 0.15362703800201416], [0.14226849377155304, -0.039696309715509415, 0.0047189644537866116], [-0.14338941872119904, -0.018863799050450325, -0.023956051096320152], [-0.1726582795381546, 0.008364603854715824, 0.18398043513298035], [-0.18388333916664124, 0.30762121081352234, 0.02781684696674347], [0.08526277542114258, -0.07738597691059113, -0.06917551904916763], [0.21176457405090332, -0.097023606300354, 0.23986652493476868], [0.1380319446325302, -0.1693270355463028, -0.08172789961099625], [-0.21700702607631683, 0.1857796311378479, -0.1581617295742035], [0.0805874764919281, 0.07295412570238113, -0.024388207122683525], [-0.042582202702760696, 0.00867039430886507, -0.15598222613334656], [-0.31193816661834717, 0.2404400259256363, -0.106260284781456], [-0.3641384541988373, 0.24401547014713287, -0.0450982041656971], [-0.1098024845123291, 0.010736510157585144, 0.0971253365278244], [0.0993705615401268, -0.140456423163414, 0.1677166074514389], [0.15663789212703705, -0.11426717787981033, -0.11508019268512726], [-0.19838090240955353, 0.14188914000988007, -0.052083440124988556], [0.0577203594148159, -0.02078070119023323, 0.08397369831800461], [0.19975855946540833, -0.2920898497104645, 0.18703524768352509], [-0.1747025102376938, 0.2642424404621124, -0.07821840047836304], [0.0241684727370739, -0.06572801619768143, -0.17761483788490295], [-0.08382948487997055, -0.07280130684375763, 0.004761606454849243], [0.434745192527771, -0.20889908075332642, -0.22916358709335327], [0.09624572843313217, -0.14620521664619446, -0.03323904797434807], [-0.19706080853939056, 0.0979587584733963, 0.04623507708311081], [0.002040105639025569, 0.10471790283918381, -0.1289382427930832], [-0.08188474923372269, -0.104666568338871, -0.02310594543814659], [-0.04733077064156532, 0.11906261742115021, 0.14649370312690735], [-0.09857740998268127, -0.04783225432038307, 0.10286963731050491], [0.1092732697725296, -0.11019925028085709, -0.11769507825374603], [0.14684808254241943, -0.2339285910129547, 0.03681456297636032], [0.21306924521923065, -0.034990064799785614, 0.004606465343385935], [-0.12208833545446396, 0.17219163477420807, -0.10276032984256744], [-0.02730584144592285, 0.08999872952699661, -0.12671011686325073], [0.09394054114818573, -0.038809921592473984, -0.20740152895450592], [-0.08827420324087143, 0.230557382106781, -0.16707339882850647], [-0.025714535266160965, 0.28783589601516724, -0.1667032539844513], [0.061908021569252014, -0.03446695953607559, 0.0706181526184082], [0.3756100535392761, -0.31130850315093994, -0.09812972694635391], [-0.00984281487762928, -0.13339366018772125, 0.16851012408733368], [-0.4029626250267029, 0.22439847886562347, 0.1064961776137352], [0.06960649788379669, -0.20654296875, 0.019072772935032845], [0.11738060414791107, -0.5332666635513306, 0.3069864511489868], [-0.05973314121365547, -0.06636258214712143, 0.06618639081716537], [-0.1977841854095459, 0.12893518805503845, 0.05907722935080528], [-0.036050945520401, -0.06036894768476486, 0.05417843163013458], [0.06055876985192299, -0.31845518946647644, 0.1939447969198227], [0.16678324341773987, 0.009542891755700111, 0.12683722376823425], [-0.1170683428645134, 0.1554231345653534, -0.058471791446208954], [0.17520928382873535, -0.015305441804230213, 0.15834496915340424], [-0.1014302596449852, -0.3489503860473633, 0.17013956606388092], [-0.2623976171016693, 0.1287640631198883, -0.05478612706065178], [-0.2832200229167938, 0.13483019173145294, 0.028666596859693527], [-0.02223905175924301, 0.03645782172679901, 0.03939606249332428], [0.08861127495765686, -0.04790453985333443, 0.04906811565160751], [0.17120298743247986, -0.03961914777755737, 0.008206863887608051], [-0.019958768039941788, -0.0006164941005408764, -0.004041416570544243], [-0.05523321032524109, -0.14584651589393616, 0.04852946102619171], [0.3552861511707306, -0.22783306241035461, -0.3650261461734772], [-0.19658686220645905, 0.131494402885437, 0.050681449472904205], [0.07866086810827255, 0.03480115905404091, -0.1469855010509491], [-0.07517720758914948, -0.0885261744260788, 0.056345343589782715], [-0.48480743169784546, 0.22283969819545746, 0.17509576678276062], [-0.0854918509721756, -0.035723358392715454, -0.13218240439891815], [0.027458826079964638, -0.04542293772101402, 0.10737492144107819], [0.060708608478307724, 0.0023559241089969873, -0.1486000120639801], [-0.16282600164413452, -0.17311689257621765, 0.25199177861213684], [-0.14106470346450806, 0.021357644349336624, 0.18105338513851166], [0.018155453726649284, -0.0047353412955999374, 0.005307067185640335], [0.03271588683128357, -0.07425849884748459, 0.06427988409996033], [-0.3581790328025818, 0.19458997249603271, 0.12650562822818756], [-0.23792612552642822, 0.17161735892295837, -0.08469996601343155], [0.04802519083023071, 0.03213481605052948, 0.008430157788097858], [-0.08143369108438492, 0.14290077984333038, 0.05733030289411545], [-0.3520377576351166, -0.07296592742204666, 0.07287944853305817], [0.11493164300918579, -0.15620924532413483, 0.1143077164888382], [0.15190443396568298, -0.11761189252138138, 0.04110207408666611], [0.11769911646842957, -0.10920679569244385, -0.06818287074565887], [0.0348229706287384, 0.1101921945810318, 0.08219738304615021], [0.01543680764734745, 0.09507202357053757, -0.1157848984003067], [0.18977797031402588, -0.2069769650697708, 0.1579274982213974], [-0.055117152631282806, -0.13552019000053406, 0.16714872419834137], [0.10343733429908752, -0.36830300092697144, -0.008171034045517445], [-0.11517258733510971, -0.08869374543428421, 0.11563100665807724], [0.030588338151574135, -0.20450328290462494, 0.0425577387213707], [0.09728795289993286, -0.036439746618270874, -0.01630306988954544], [-0.4269179701805115, 0.012494362890720367, 0.2046440839767456], [0.0684104636311531, 0.3428996205329895, -0.39241644740104675], [0.18861182034015656, 0.09822121262550354, -0.2427436113357544], [-0.0099795488640666, 0.14416982233524323, -0.009476162493228912], [-0.042155150324106216, -0.011723016388714314, -0.13799698650836945], [-0.11159104853868484, 0.08219698071479797, 0.03251281753182411], [0.05600076541304588, 0.03458499163389206, 0.008098896592855453], [-0.06690284609794617, -0.1116718202829361, 0.09963423013687134], [-0.42994803190231323, 0.013113299384713173, 0.25149381160736084], [0.1032344251871109, -0.3256780803203583, 0.10010423511266708], [0.29396510124206543, -0.19087886810302734, 0.04396818205714226], [0.16643916070461273, -0.20548415184020996, 0.0034834113903343678], [-0.08351678401231766, -0.15185509622097015, 0.22033624351024628], [-0.0028204170521348715, -0.017888082191348076, -0.06076504662632942], [0.39828190207481384, -0.2312774360179901, -0.27902793884277344], [0.021374434232711792, 0.07171331346035004, 0.05377921462059021], [-0.13311456143856049, 0.102215975522995, 0.17770303785800934], [-0.0657162293791771, 0.11464438587427139, -0.005207529291510582], [-0.03530529886484146, 0.046605948358774185, -0.013876529410481453], [0.045283906161785126, -0.03704484924674034, 0.0966472327709198], [0.16698284447193146, -0.29239243268966675, 0.04395436495542526], [0.15321040153503418, -0.07136458158493042, -0.005967734381556511], [0.019314607605338097, -0.06321051716804504, -0.002475013490766287], [0.052850767970085144, -0.08544164896011353, 0.023944541811943054], [0.019878989085555077, -0.05182440206408501, -0.0355953574180603], [0.03440428525209427, 0.06631021201610565, 0.09963581711053848], [0.38545864820480347, -0.158134326338768, -0.2349650263786316], [0.08374371379613876, -0.03775407373905182, -0.039870258420705795], [0.11706633865833282, -0.0443793460726738, -0.036769915372133255], [0.04979800060391426, -0.18604041635990143, -0.08609304577112198], [0.0941479355096817, -0.07784536480903625, -0.35640883445739746], [0.03131663426756859, 0.07391846179962158, 0.01916532777249813], [-0.02627955749630928, -0.034496843814849854, -0.11059560626745224], [-0.06673730909824371, -0.13668517768383026, 0.005625102669000626], [0.4524582028388977, -0.1299869567155838, -0.22613851726055145], [-0.12500816583633423, -0.11227310448884964, 0.13199646770954132], [-0.06530778110027313, -0.06274555623531342, 0.17818963527679443], [0.00850345753133297, -0.06126333773136139, -0.0468338206410408], [-0.033152807503938675, -0.05478857457637787, -0.14115218818187714], [-0.08451622724533081, 0.0308457612991333, -0.009985558688640594], [-0.15419934689998627, 0.12033747136592865, 0.019921964034438133], [-0.09802518784999847, 0.05923419073224068, 0.15709005296230316], [0.23829063773155212, 0.018183020874857903, -0.20426422357559204], [0.1495397984981537, -0.10201344639062881, -0.041940391063690186], [-0.06600265949964523, 0.06004704162478447, 0.014138562604784966], [-0.09617863595485687, 0.1583753228187561, -0.237337127327919], [0.08507402241230011, 0.13636203110218048, -0.0800187960267067], [-0.09056249260902405, -0.07792060822248459, -0.04535685479640961], [0.1371881514787674, 0.02848217263817787, -0.49914342164993286], [0.13762646913528442, -0.1354774534702301, 0.1253926306962967], [0.09685635566711426, -0.4050518274307251, 0.06860579550266266], [0.15083371102809906, -0.15088020265102386, 0.037526994943618774], [0.25181952118873596, -0.17950665950775146, -0.13450704514980316], [-0.161421537399292, 0.15864290297031403, 0.1326623409986496], [-0.3410226106643677, 0.1410204917192459, 0.03448614105582237], [-0.12286559492349625, -0.042795971035957336, -0.0021246373653411865], [-0.2927122712135315, 0.41226065158843994, 0.03262367472052574], [-0.12116802483797073, 0.07991379499435425, 0.12115330249071121], [0.15280184149742126, -0.07357614487409592, -0.17777909338474274], [0.015989847481250763, -0.10033219307661057, 0.054861027747392654], [0.05701616406440735, 0.10456319153308868, -0.09716741740703583], [-0.030506229028105736, 0.12493609637022018, -0.166550412774086], [0.003034557681530714, -0.08906044065952301, -0.0098025593906641], [-0.05602867901325226, -0.0017784908413887024, 0.09653890132904053], [-0.02913849987089634, 0.027610594406723976, 0.2381054013967514], [0.0013201652327552438, -0.09738409519195557, 0.09402336925268173], [0.3847513198852539, -0.2080884575843811, -0.13551773130893707], [0.041391678154468536, -0.06855527311563492, -0.03623342141509056], [-0.16594867408275604, 0.10704623907804489, 0.0649142637848854], [-0.04228460043668747, 0.0997239500284195, -0.14383049309253693], [-0.06502538919448853, 0.043419141322374344, -0.07947801053524017], [0.07783496379852295, 0.09688879549503326, 0.015514090657234192], [-0.2998746335506439, -0.18017162382602692, 0.3335805833339691], [-0.018198322504758835, -0.19680847227573395, 0.07478822022676468], [0.0203295536339283, 0.23626695573329926, -0.23125284910202026], [0.17756037414073944, -0.12501609325408936, 0.10287787020206451], [-0.2004329413175583, -0.2826509475708008, 0.384915828704834], [0.02568778209388256, 0.01844673790037632, -0.04052776098251343], [0.050401583313941956, 0.03085067868232727, -0.3816055357456207], [-0.07343496382236481, 0.029531091451644897, -0.10779240727424622], [-0.3191325068473816, 0.010839789174497128, 0.30944162607192993], [0.14997519552707672, -0.09342334419488907, 0.19583268463611603], [0.09638935327529907, -0.012271305546164513, -0.28310999274253845], [0.2578960955142975, -0.22793138027191162, 0.07809165120124817], [-0.20629560947418213, 0.11418081820011139, 0.01657984033226967], [-0.19696886837482452, 0.2132517248392105, -0.008646420203149319], [0.035207200795412064, 0.11670777946710587, -0.21988573670387268], [0.04791414737701416, -0.06772594153881073, 0.09067603945732117], [-0.3076260983943939, -0.034785423427820206, 0.19030287861824036], [-9.40194440772757e-05, -0.12168895453214645, 0.10492793470621109], [0.04485172778367996, -0.06618440896272659, -0.21719878911972046], [0.1188206747174263, -0.19753272831439972, 0.028857167810201645], [-0.028084900230169296, -0.31262797117233276, 0.4055948555469513], [-0.345112144947052, 0.12383854389190674, 0.01400013081729412], [-0.06537973135709763, 0.18030396103858948, -0.0922761932015419], [0.054475560784339905, 0.04028528928756714, 0.0046007633209228516]], [-0.011684631928801537, 0.05935162678360939, -0.04359104111790657]]}]}